[{"weights": [[0.20804105699062347, 0.05675830319523811, 0.17397375404834747, 0.12331985682249069, 0.026018716394901276, 0.662144660949707, -0.17060567438602448, -0.6298322677612305, -0.5528779029846191, 0.02653888426721096, 0.11393694579601288], [-0.019511990249156952, -0.06365372985601425, -0.10678629577159882, -0.34077420830726624, 0.12478575855493546, 1.2031347751617432, 0.2099783569574356, 0.17726892232894897, -0.8056077361106873, -0.7170591950416565, 0.1632433533668518], [-0.36200419068336487, -0.01153052318841219, -0.07197479158639908, 0.04583650454878807, -0.4287916123867035, -0.3470602035522461, -0.20111989974975586, 0.48985788226127625, 0.09408977627754211, 0.05818803608417511, -0.4055788218975067], [-0.7278954386711121, -1.6664319038391113, -0.13511782884597778, 1.1855262517929077, 0.5807138085365295, -0.193197563290596, -0.4741532504558563, -0.6444544792175293, -0.25069642066955566, -0.8038451671600342, -0.46333983540534973]], "biases": [-0.12133534997701645, -0.09341861307621002, 0.870231568813324, 0.48580312728881836, 0.5942359566688538, -0.46068674325942993, 0.29805049300193787, 0.3054661154747009, 0.6759910583496094, 0.32781466841697693, 0.4835936725139618], "activation": "relu"}, {"weights": [[-0.4729064106941223, 0.12783195078372955, 0.17341618239879608, -0.3706129491329193, 0.04604194685816765, -0.7397468686103821, 0.17047670483589172, 0.3446677625179291, -0.41330277919769287, 0.18898488581180573], [-0.17115992307662964, -0.195511132478714, -0.05134258419275284, -1.926595687866211, -0.18120329082012177, -1.2462530136108398, -1.6482148170471191, 0.3422352373600006, -0.07825513929128647, -0.12145624309778214], [-0.06598696112632751, 0.27975383400917053, -0.2448243498802185, -0.30057838559150696, 0.488920122385025, 0.3663628399372101, 0.3812219798564911, 0.6018727421760559, 0.5257859826087952, 0.5437979698181152], [-1.2136964797973633, 0.41315266489982605, -0.7310466766357422, 0.846809983253479, -0.0393785685300827, 1.099838376045227, 0.9648322463035583, -0.2612196207046509, 0.3853570818901062, -0.252207487821579], [-0.09107230603694916, 0.05244794860482216, -0.15142858028411865, 0.6418355107307434, 0.4912913739681244, 0.42497047781944275, 0.6316103935241699, -0.10581417381763458, 0.013091792352497578, 0.15485787391662598], [-0.7680085301399231, -0.2108798772096634, 0.49778616428375244, -0.28956282138824463, -0.396244078874588, -0.007210862822830677, -0.477115660905838, -0.21134614944458008, -0.1441153585910797, -0.3362778425216675], [0.49733439087867737, 0.8101403117179871, 0.3452759087085724, -0.0763595923781395, 0.020059162750840187, -0.026527270674705505, -0.23700197041034698, -0.25824490189552307, 0.17551976442337036, -0.24425813555717468], [-0.263835608959198, 0.40737849473953247, 0.5420714616775513, 0.08720636367797852, 0.28809449076652527, -0.3336706757545471, -0.3206409811973572, 0.00017905994900502264, 0.006137459073215723, -0.3563007712364197], [0.39623895287513733, 0.33445480465888977, -0.8419572114944458, 0.23680700361728668, 0.6658698916435242, -0.388411283493042, 0.39071908593177795, 0.03763801231980324, 0.4081164002418518, -0.04313569515943527], [0.8242484927177429, -0.1477031111717224, -0.5320431590080261, -0.22721818089485168, 0.15320126712322235, 0.15433228015899658, -0.5483533143997192, 0.13031703233718872, 0.7213141322135925, -0.053348321467638016], [0.555749237537384, 0.990820586681366, 0.457708477973938, -0.05870397388935089, -0.16440396010875702, 0.14557623863220215, -0.2782094478607178, 0.40321701765060425, 0.467246413230896, 0.589836835861206]], "biases": [0.2031988948583603, 0.6054530143737793, -0.14655694365501404, 0.04468435421586037, 0.6602815389633179, 0.3602284789085388, 0.04053342714905739, 0.8479657769203186, 0.597121000289917, 0.212239608168602], "activation": "relu"}, {"weights": [[0.9270423650741577, -0.28677624464035034, 0.006524101365357637, -0.560516357421875, 0.25691112875938416, 1.0638452768325806, 0.6912382245063782, -0.5283621549606323], [0.4294393062591553, -0.8486121892929077, 0.19844567775726318, 0.947422444820404, 0.16594290733337402, -0.2902763783931732, 0.3425060510635376, 0.8029599785804749], [-1.094238519668579, 0.7679522037506104, -0.5173410773277283, 0.60381680727005, -0.5761438012123108, -0.8954746723175049, 0.15641869604587555, 0.23970070481300354], [-2.3012731075286865, 0.9425087571144104, -0.6606580018997192, 0.8083199262619019, -0.37140092253685, -0.4548598825931549, 0.004671957343816757, 0.7160652875900269], [0.38223323225975037, -0.47942793369293213, 0.8905325531959534, 0.014967978931963444, 0.4011327028274536, 0.16371241211891174, 0.6456249952316284, 0.6987317800521851], [-0.9425480365753174, 0.44371968507766724, 0.1542385369539261, 0.8743048906326294, 0.3675031363964081, 0.5509638786315918, -0.2774994671344757, -0.09046674519777298], [-1.9215625524520874, 0.04149157926440239, 0.1425398588180542, 1.0221902132034302, -0.4614143371582031, -0.530163586139679, -0.26525402069091797, 0.9473316669464111], [0.1371113359928131, -0.9536998867988586, 0.882030725479126, -0.6614925265312195, 0.5904086828231812, 0.5936207175254822, 1.0328081846237183, 0.7029100060462952], [0.4096139967441559, -1.3730427026748657, -0.05735691636800766, 0.09975262731313705, 0.6920578479766846, 0.4550941586494446, 0.7724027037620544, 0.764190137386322], [0.4490320086479187, -0.30010709166526794, 0.5946687459945679, -0.7318598628044128, 0.3124627470970154, 0.935490071773529, 0.5882876515388489, -0.12442643195390701]], "biases": [0.15707258880138397, 0.05394303798675537, 0.5034324526786804, -0.18273605406284332, 0.34438344836235046, 0.797389805316925, 0.32752737402915955, 0.42468297481536865], "activation": "relu"}, {"weights": [[-0.288936585187912, -0.8309210538864136, -0.459236204624176, 1.1087383031845093, -1.3195374011993408, 1.4501311779022217, 1.124114990234375], [-0.35087066888809204, -1.6652652025222778, -0.04820533096790314, -0.3441501557826996, -0.03498119115829468, 1.50210702419281, -0.3856034278869629], [0.4371759295463562, 0.15620888769626617, 1.3260493278503418, 1.1257506608963013, -0.27248334884643555, -0.2717278003692627, 1.3309727907180786], [-0.24474993348121643, 1.1738133430480957, -0.5464274883270264, -0.38007375597953796, 1.5116521120071411, 0.4725342392921448, -0.452249139547348], [-0.4460300803184509, -0.39336299896240234, 1.0541355609893799, 0.8378466963768005, 0.39241158962249756, -0.09721483290195465, 1.0855040550231934], [0.11938852071762085, -0.3063391149044037, 1.4780858755111694, 0.8156145215034485, -0.6420369148254395, 0.32624351978302, 0.9624055027961731], [-0.31094756722450256, -0.26729148626327515, 0.36539703607559204, 0.7931283116340637, 0.27887412905693054, 0.17957015335559845, 0.49196305871009827], [-0.614517331123352, 1.0704336166381836, 0.7909684777259827, -0.09769727289676666, 0.5254057049751282, -0.31406161189079285, -0.016318049281835556]], "biases": [0.0, 0.04909990355372429, 0.2664213180541992, 0.17593322694301605, -0.02349942922592163, -0.2935674488544464, 0.3228622376918793], "activation": "relu"}, {"weights": [[0.4254542589187622, 0.2541264295578003, -0.6244074702262878, -0.21076643466949463, 0.5693792104721069, -0.29279810190200806], [-1.4304685592651367, 0.06712140887975693, -0.16040988266468048, 0.5233287811279297, -1.2080636024475098, -0.6197220087051392], [0.24408552050590515, 0.4386451542377472, -1.4434248208999634, -0.6889929175376892, -0.6529884934425354, -0.7324291467666626], [0.8384310007095337, 0.3873997926712036, 0.003736019367352128, -1.5325547456741333, -0.6878963708877563, -0.7354604601860046], [-1.5230755805969238, 0.5090851783752441, 0.5303950309753418, 0.6028053164482117, 0.3243104815483093, -0.10754188895225525], [1.1970678567886353, -1.4501514434814453, 0.7809014916419983, 0.005195642821490765, 0.8296135067939758, -0.3079075813293457], [0.6415765285491943, 0.046025391668081284, -1.1593687534332275, -1.90535306930542, 0.27061206102371216, -0.28594541549682617]], "biases": [0.02526184916496277, 0.22033925354480743, -0.28122478723526, -0.17478998005390167, 0.017570454627275467, -0.10613538324832916], "activation": "softmax"}]